{
  "model_version": "1.0",
  "architecture": "LeNet-5",
  "created_at": "2025-06-21T15:58:59.456676+08:00",
  "network_config": {
    "input_size": 784,
    "output_size": 10,
    "batch_size": 32,
    "num_layers": 5
  },
  "parameters": {
    "layer_0": {
      "layer_type": "dense",
      "weights": {
        "rows": 84,
        "cols": 10,
        "data": [
          -0.13520430675616715,
          -0.021222101842385637,
          0.17242821468068853,
          -0.04460978307077717,
          -0.11806335046572936,
          0.03366170093360333,
          0.0036291000005764305,
          0.1377091861509246,
          -0.006348509642980336,
          0.2851075357138076,
          0.03225063034823719,
          0.007896576869149585,
          0.1606174833129962,
          -0.32492110169426475,
          -0.10011398251898047,
          -0.04895722657250343,
          0.02938868887380191,
          0.020484003967098558,
          -0.058785619687925984,
          0.05185636374985925,
          -0.15113210412458947,
          -0.03172657064463191,
          0.22282018118103478,
          0.2890941591552234,
          -0.2094940219922142,
          0.04607162235681862,
          -0.09373382429987996,
          0.06374224466774123,
          -0.15416973717802973,
          0.12360382752624074,
          -0.01772821409532133,
          -0.2451279370341663,
          0.01920999675559805,
          -0.14759226113022908,
          0.16723339766749504,
          0.060226093413409475,
          0.10095703780369719,
          0.29190705642600073,
          -0.22127373785212845,
          -0.33424125412317324,
          -0.2214528014569264,
          -0.2258212042789706,
          -0.3077076318750075,
          -0.046219863728818575,
          0.3943630093450527,
          -0.21156149899499782,
          -0.02342490894205597,
          -0.026982891366098376,
          -0.09068919980998934,
          0.10084708850149639,
          0.10145889847981958,
          0.11381430904734097,
          0.038058561816475954,
          -0.02183424982805447,
          -0.09622339235578113,
          -0.09381304281390014,
          0.21595085173049183,
          0.13953378113322087,
          0.008576370766250504,
          -0.2392294076636339,
          0.09523788128675822,
          -0.03819960569253315,
          -0.06944562281788862,
          -0.09623705520213983,
          0.011575114505937338,
          0.11337860971184333,
          -0.12569235573927348,
          -0.07368356507374978,
          0.034287036686119474,
          0.2357383434332811,
          -0.3265913783110296,
          0.302734745188351,
          -0.28506046433746485,
          0.0268332554407133,
          0.10155337800858114,
          0.007606263072167874,
          0.1936952043985936,
          -0.30244786540017154,
          -0.063924564702269,
          0.1473921066375985,
          -0.06888878013175585,
          0.28625958634909465,
          0.20718224999227464,
          0.12818609177789625,
          0.3267865632764482,
          0.026389498847942745,
          -0.17250016401400287,
          0.0863220771511603,
          -0.15396110956103382,
          -0.007920155268970821,
          0.44478647792554066,
          -0.1917463626764361,
          -0.04072393933771705,
          -0.12771377638940468,
          0.1871568321396173,
          0.04168123757516347,
          -0.10660850173615925,
          0.3929281506195543,
          0.3280992574694175,
          0.012627997781488246,
          -0.029487766277038818,
          0.15819599969900533,
          0.08714944297107727,
          0.18230514414579727,
          -0.1783917853326901,
          -0.12519399300329684,
          -0.29640847249042385,
          -0.18791430642730125,
          -0.03988226315711838,
          0.033493115751727906,
          -0.06277889274596557,
          0.009998129324604695,
          -0.10554606565993835,
          -0.0872050761772698,
          0.29376633400277025,
          -0.40340524451973536,
          0.129047474189825,
          -0.03631680190205538,
          -0.1175672750015655,
          -0.3446238851073336,
          -0.03301338090000225,
          -0.20675388663812652,
          0.19469405148467284,
          -0.08903808608276158,
          0.20492700981944745,
          -0.10811492758914873,
          0.2911157422671822,
          0.014859537382836237,
          0.2536064033735724,
          -0.25305225724441804,
          0.32959082049244537,
          -0.0596238390093052,
          0.22101592260541844,
          -0.0018576184702815846,
          -0.032971581269009016,
          0.02852130302426275,
          -0.036440459118047,
          -0.010576646488932058,
          0.11609595886935672,
          -0.14385766393280544,
          -0.027098286733890777,
          0.12303640559237308,
          0.09741111832170025,
          0.023502947837307078,
          -0.08691556127008637,
          0.29379921727270686,
          -0.06186265512610999,
          0.4096796668395848,
          0.10254915902677672,
          0.10671784493096352,
          -0.14811553620918372,
          0.1732946389072664,
          -0.24129846116342835,
          0.05058564688553926,
          -0.07085814843097142,
          0.33626691869404884,
          0.054661978568809035,
          -0.09370145839537683,
          0.011366343369150364,
          -0.12528015476807927,
          0.2678595967579958,
          -0.4445540179335082,
          -0.2782475188608283,
          0.04151784848307094,
          0.10861245496168863,
          -0.04707446030259022,
          0.317681742933141,
          -0.09164454204752966,
          -0.036536845906820964,
          -0.10433222343577495,
          -0.20933169875973678,
          -0.11317171270873037,
          -0.15727738301645336,
          0.0528160841269601,
          0.03300429648206252,
          -0.09267315653083956,
          0.02790504075532392,
          0.090411757610027,
          -0.06653471658006849,
          -0.12379833433176662,
          0.11062485223722651,
          -0.1270945803529428,
          -0.022452869081667756,
          -0.014109715546271268,
          0.1525100814575229,
          0.06098659749015286,
          -0.136561137747623,
          -0.245437025540814,
          0.18971132032606897,
          -0.2156648740729141,
          0.15986520095896523,
          -0.00533544910646617,
          -0.09597141159462695,
          -0.07726270291463166,
          -0.04654801760673751,
          -0.07388320687344495,
          0.20405055109443956,
          -0.36477811703063,
          0.4122183242222749,
          0.027514650367845433,
          0.47722092902633273,
          0.10771993879545538,
          -0.001391315730967606,
          0.2632902586896887,
          0.23229437122148286,
          0.004850475724493614,
          0.031418354560575075,
          0.03870249913205602,
          0.028792199885787673,
          0.09120378088771403,
          0.010020607474564324,
          0.17228499666818714,
          0.07406798438338293,
          0.14094969502315235,
          -0.06454773729445094,
          0.031659595133559384,
          0.016441163472061135,
          0.1405581443428427,
          -0.21931462442244992,
          -0.1474868880789139,
          -0.05568025724785508,
          0.027508476085755143,
          0.12479768002230762,
          0.15214867536350565,
          0.07775971832269152,
          -0.3799701482437733,
          0.07133909840532386,
          0.0044664823265967496,
          -0.10214009332972894,
          0.21354115357696457,
          -0.10677972631033,
          0.18466236252728518,
          0.037166783202064006,
          0.11322857652352272,
          -0.1268685973771909,
          -0.10039286752806742,
          -0.3495821618040325,
          -0.3435098354277296,
          0.14369894784871354,
          0.042623185642869287,
          -0.05813714264713956,
          0.034528306750402055,
          0.08364872180976367,
          -0.08109973040893376,
          -0.2150231819180769,
          0.10146388583698172,
          -0.041625030605364224,
          -0.07875412163934273,
          -0.11997294400663701,
          0.06541055712348492,
          -0.2779432170156962,
          0.20725381253630962,
          0.24563897178983868,
          0.278167244328682,
          -0.14741008017516408,
          -0.2505271536160233,
          -0.14732926064381446,
          0.06096078237519873,
          0.03915861170553349,
          -0.3050129014967537,
          0.2726244663311114,
          -0.26806708112500605,
          -0.05557925201545412,
          0.10875521682210301,
          -0.20070695286885532,
          0.003517362736262191,
          0.2036357469517214,
          0.1096024410335922,
          -0.06608744575147507,
          0.11565337257351418,
          -0.045362718454415106,
          0.02913633171266789,
          0.1251305341482569,
          -0.032250408390069436,
          0.05074129585845266,
          0.1344824694502344,
          -0.3048279483428848,
          0.23200293768195834,
          -0.0074678260115389776,
          -0.10267623750798231,
          -0.04682458670672083,
          0.0005231134127236789,
          0.10109254973313528,
          0.02586588807031943,
          -0.03843989965513156,
          -0.08301930231564046,
          0.06852845489650036,
          -0.06901198808769604,
          -0.3507648923562439,
          0.37594764279825565,
          0.1381242407747629,
          -0.08668239547461927,
          0.001154520456714612,
          0.1180933301163814,
          0.17379788624855452,
          0.09230895020189948,
          0.0386456966347859,
          -0.24843706968256726,
          -0.06511159220819784,
          0.0081549060632388,
          0.11696389187049137,
          0.054086183283898144,
          -0.1962487844492048,
          0.11055137471814055,
          0.023685135270861343,
          0.2177351665251693,
          0.1474096831462771,
          -0.08533111136735055,
          0.09238069129980309,
          0.16726162103148706,
          0.26486322321217826,
          -0.008919480137062714,
          0.10044145267173193,
          -0.14626033300385957,
          -0.09935655322237795,
          -0.3567931988955209,
          0.18110160117647572,
          0.10645050597143506,
          -0.0994492461140249,
          0.18734686764042585,
          -0.07300706196243481,
          -0.19900883413305478,
          0.17209966655545253,
          0.11733669967986725,
          -0.24037674908718742,
          -0.12094419428910387,
          0.06321181944924076,
          -0.05138786115268511,
          0.020392765431151393,
          0.09522107972586001,
          -0.13055907391903288,
          0.22403222314351776,
          -0.15372682129972456,
          -0.30402549520392613,
          -0.1491219162372235,
          -0.25897803349261794,
          0.14261134155335475,
          -0.14845793519319508,
          0.06240428085994681,
          -0.003787080891224281,
          -0.07305340382606798,
          -0.10376553327616009,
          0.13772198177198042,
          -0.2404673702493151,
          -0.19447872185458248,
          0.05921669913399382,
          -0.15222675901318386,
          0.0075326975768984766,
          -0.03566842154862655,
          0.07575806245284313,
          0.1424432769092357,
          0.09428147675173562,
          0.18009288331428236,
          -0.0180568302791834,
          0.38993798130635743,
          0.11499320578017364,
          0.03457820849634208,
          -0.173733417257687,
          -0.11814398069122414,
          0.09485880258035544,
          -0.15550725469182372,
          0.1453141586058099,
          -0.3436503008858506,
          -0.08801041495574197,
          0.051333708793278886,
          0.18363135260504873,
          -0.04080822627553082,
          0.4618831463112674,
          0.101486007590812,
          -0.34773895786899756,
          0.0996116188007491,
          0.04570983235468115,
          -0.023642988625520833,
          -0.20456554043551278,
          0.10877596579978516,
          0.1405943176897841,
          -0.2683100830255963,
          0.28082792214592545,
          0.3191206006304711,
          0.26494085452819294,
          -0.1846215986982858,
          0.1219149234478553,
          0.17175501317519926,
          -0.15960040545293427,
          0.18096677895624005,
          0.015201555121014669,
          -0.14500908818201122,
          -0.07177614178859802,
          0.17691293590474963,
          -0.004158384160425982,
          -0.053328652852006525,
          0.012220460698050713,
          0.13877737856807867,
          -0.06377437079628974,
          -0.04744961094186609,
          -0.08098890222382576,
          0.19307000734846883,
          -0.08245067340357502,
          -0.2857608404266504,
          0.015653448809444418,
          0.01978452316204362,
          0.2678947633827904,
          -0.05176272874756222,
          -0.2581953448642858,
          0.05946399483690093,
          -0.10741229063872465,
          0.20713205078988256,
          0.3531744748331949,
          -0.255334753571285,
          -0.2635893494923836,
          -0.15097293618464322,
          -0.04894670545368025,
          -0.13062606495029802,
          0.20427587171829467,
          0.2030256449740939,
          -0.06556139682572501,
          -0.20968534666647007,
          -0.18288862577210846,
          -0.03339460879024678,
          -0.18089821228002426,
          -0.12583500283025276,
          0.030460775311158542,
          -0.15252962824882418,
          0.0686997561232399,
          -0.3189237806024947,
          0.1887256286576536,
          -0.015973462688710693,
          -0.042886015817820894,
          -0.08650532487406906,
          -0.004393503609354386,
          -0.194174629333321,
          0.24240890255635303,
          0.3209093549168107,
          -0.04912956921454004,
          -0.08230615179713582,
          -0.0412818341552609,
          -0.1829395385279312,
          0.08969155290227335,
          0.27915279457212644,
          0.04946846383843624,
          0.19130500201940398,
          -0.20403118597960337,
          -0.06295552606200612,
          0.11875115506423696,
          0.07256323531865234,
          0.25629426867669053,
          0.196054116204835,
          0.1316325713359184,
          0.02884651310048827,
          0.0018228785122904598,
          -0.08745948840602118,
          -0.27817283167279944,
          -0.07962804587174285,
          0.23574596715371332,
          -0.06685644755925944,
          0.09028373793987153,
          0.155535772292533,
          0.11251600844986538,
          0.08461053961570986,
          0.31319821014427834,
          0.1783440182606061,
          -0.07768027209104213,
          0.05773747839936319,
          0.06419051229143971,
          0.16434590932399717,
          0.11605783562685462,
          -0.12821731625961547,
          -0.04119651604589657,
          0.05151634979565497,
          0.1221471517479742,
          -0.07481731079522856,
          -0.019102146704597846,
          -0.05875954911773118,
          0.08578427331535866,
          0.11365687759089599,
          0.12703921637269866,
          -0.15291554125043186,
          -0.3126991357191069,
          0.12343327925277953,
          0.036844767081260874,
          -0.04135314741643015,
          -0.17010538254307744,
          -0.04702523450906239,
          0.025724924072624764,
          0.2033275015193339,
          0.46862648360070025,
          0.21001250111869735,
          -0.0061209007423325065,
          0.17736220125249327,
          0.16170947862517118,
          0.012194359660500777,
          -0.059976584676386634,
          -0.07377928285246452,
          0.2234978704303879,
          0.16616717400778552,
          -0.21247995060687472,
          -0.08336936135564103,
          -0.18933391849557432,
          0.00569172039918211,
          0.11107366372397592,
          0.1996504768763193,
          -0.16064127304612624,
          0.029832530673163597,
          0.17262841826596936,
          -0.3465566803135367,
          0.15190733411121604,
          0.10535639256342921,
          0.3269747285173844,
          -0.2306196818983717,
          -0.18327135175280487,
          0.19828263329470053,
          0.24017053909571476,
          0.17828110780891582,
          -0.04890635513530924,
          -0.05230556938625623,
          0.18412561363139407,
          -0.046168446720790804,
          -0.31233467793248365,
          -0.21575294102943327,
          0.07434314652362753,
          -0.16321483428328057,
          -0.054620585344848475,
          -0.02828569183834364,
          -0.16745940827873942,
          0.09959306232063941,
          -0.094626455243962,
          -0.024998142174340477,
          0.03534627352686013,
          -0.08657194249390893,
          -0.2390253079341568,
          0.1431914623878032,
          0.1274908258136787,
          -0.01117375116886649,
          0.18125953899525693,
          0.024204243034605992,
          0.2058209204408295,
          -0.07123120363435541,
          0.03431648942615192,
          -0.16636344142416076,
          0.05967297677915684,
          0.24312966351986207,
          0.16651202771759968,
          0.10451542453773789,
          0.03205126608167954,
          -0.07727208044162835,
          0.011953929821906689,
          0.14999761823623398,
          0.20610227223212668,
          0.0009618305881005874,
          -0.10600988870196026,
          -0.15971457022670518,
          0.0629436501313183,
          -0.1567386689841158,
          -0.16614790218652817,
          0.08159817947601988,
          -0.18909473558070514,
          -0.5243858099160446,
          -0.08623283471044248,
          0.23451501447944914,
          0.16652500642108678,
          0.22600554993991154,
          -0.04005884077183951,
          0.4203288601549643,
          0.21841535156074018,
          -0.0502604214462165,
          -0.1962834368903726,
          -0.10886005652790778,
          0.29511505205665267,
          0.1880611952365157,
          0.08886647538622275,
          0.2240182453573971,
          -0.055549426673712106,
          -0.23566848280368122,
          -0.3280475512717237,
          0.4910909234583342,
          -0.2933260882172539,
          -0.037686064533450074,
          0.10068098607473332,
          -0.16681532072711427,
          0.23879031434456016,
          -0.2878812735671527,
          -0.18079226330121395,
          0.10083411583660738,
          -0.08371550193100426,
          -0.05113014846848225,
          0.12712250577426412,
          -0.28242642238238563,
          0.3351628840816991,
          -0.08648252604248338,
          0.11702846843804773,
          -0.34761196797711197,
          -0.4178171378280189,
          -0.1243031954384019,
          0.35019971628551216,
          -0.21655730376871876,
          -0.14843731618865483,
          -0.12173729353269107,
          -0.012870412027636597,
          -0.034874478860083644,
          -0.08319181733037467,
          0.2037790426813942,
          0.020602246662652562,
          0.04842667228397659,
          0.17870292991657796,
          -0.22020843311139007,
          0.18484735633303948,
          0.019841971284981292,
          0.23507166457508522,
          -0.020771208977899087,
          0.19691117490409044,
          0.06459364408530914,
          -0.11070942343751324,
          0.1976342417017707,
          -0.2051672428053446,
          0.03732049952907172,
          0.2732845490459007,
          0.0342602380785613,
          -0.20149999481914818,
          0.006544732012320897,
          0.20839713180372121,
          -0.17339926897358643,
          -0.018710134254650092,
          0.060815465839323665,
          0.19474137453404336,
          -0.25166845127450255,
          0.20664060130578718,
          0.12288575820374834,
          0.08502346699022441,
          -0.3156296980546412,
          -0.17496387530158455,
          -0.035716788539473854,
          -0.10609598202234412,
          0.060121138875484245,
          -0.27278570286496107,
          0.019247269721791038,
          0.0467161689061162,
          -0.2280137134691051,
          0.04187565256128704,
          0.35134936438315467,
          -0.11015679395409389,
          -0.2336936386799453,
          0.15436095824837104,
          0.03888347638377106,
          0.04593472814063566,
          0.039400107694469805,
          -0.010907526633021372,
          0.4292292915663609,
          0.026037511220354453,
          0.04344562569811048,
          -0.18030353214931252,
          -0.03624730752373865,
          -0.10380123079906345,
          0.034630624174352295,
          0.013778780784718688,
          0.07578918308126942,
          0.01773853953695746,
          -0.22462860949736516,
          0.02663077673838614,
          -0.2347796889934782,
          0.15119603156094666,
          0.21312300458658692,
          -0.09034242863890463,
          -0.00670008261614832,
          -0.036764223199829714,
          -0.3081252641014752,
          0.19538019852030158,
          -0.17943621118508565,
          -0.0030255158547180835,
          0.055314973405658,
          -0.4514820303486884,
          0.23133921553974365,
          -0.18884036987570607,
          0.03361567136250232,
          0.08969551524138698,
          -0.07668540001253256,
          0.32617456845520715,
          -0.26879148690824717,
          -0.14582522787907498,
          0.32266187390131673,
          -0.1721099798029072,
          0.24405742232699856,
          0.15994571240657918,
          0.023155455941392438,
          -0.10631146539760311,
          -0.2107346524712392,
          0.10776889744784791,
          -0.3186877623120044,
          0.3092350677370037,
          -0.09663564524077778,
          0.004647333267720858,
          -0.030756221319221354,
          0.05746232579704537,
          -0.13362570650445202,
          0.2882360250386498,
          -0.06104684645512345,
          0.14388018189306515,
          -0.16295860844685484,
          -0.14346588685623268,
          0.24249891053481165,
          0.04143606167456914,
          0.14773046510311438,
          -0.18609225232824644,
          0.2885863808456963,
          -0.2244721788812508,
          -0.013683134193754555,
          0.11507340862481212,
          0.30893712185770134,
          -0.2907014190882294,
          0.07140084363778453,
          -0.016487270306595102,
          0.12688058912640798,
          0.016873602088941026,
          -0.4723189575661989,
          0.4196998277940053,
          -0.04206387978452476,
          0.07116109113033971,
          -0.22321662873508086,
          -0.13722542517585296,
          -0.20887475925785207,
          -0.23928776323853385,
          0.3793249295468052,
          -0.010888551610347293,
          -0.22668906246116985,
          0.15108627632975644,
          0.013358366681329104,
          -0.5671343184493778,
          -0.02925154574589142,
          -0.024093001494502223,
          0.09709148240564121,
          0.0025454630545753516,
          -0.0047014476157028725,
          0.3061983784361101,
          0.3411932319648097,
          -0.04968217068994657,
          -0.04489640154625009,
          -0.24696498884997062,
          -0.05670155481384893,
          -0.18780129455262623,
          -0.054698856247175444,
          -0.10011268613138205,
          0.10667976098932247,
          -0.019761431552141884,
          -0.07300778088464137,
          0.10354783754519029,
          -0.044545766428760986,
          0.04387886236110872,
          0.2642330068384734,
          -0.3757249392275443,
          0.016242617343722763,
          0.285175648295569,
          0.11610454964532517,
          0.19576021828771833,
          0.11089163571876802,
          0.17010019216937902,
          -0.0385810351646019,
          0.05313137730443545,
          -0.2171543476953783,
          0.09901906423750689,
          -0.21348956582006667,
          0.012519167231305202,
          -0.15682810568446542,
          0.013925104865886563,
          0.09428458531658254,
          0.22103220598577528,
          0.37036173780544807,
          -0.18210051800388477,
          0.1415043522005145,
          0.1702281358965235,
          0.13141486883622236,
          -0.2334553102699602,
          0.031647055689129025,
          -0.022875271293411333,
          0.016403918269385226,
          -0.021292170211207426,
          -0.2532031206634404,
          -0.16763901132063921,
          -0.030828113395595113,
          -0.016676902523217595,
          -0.08524727069184092,
          -0.11924641009443168,
          0.17495252902406502,
          -0.20602827639449398,
          0.023958312365456032,
          0.10186259144154639,
          0.16609732612520264,
          -0.047616116362077646,
          -0.2499586701955131,
          -0.07600521745814563,
          0.05157705428381844,
          -0.11142508083663184,
          -0.18451680500983472,
          -0.21869698971336576,
          0.23396869208957605,
          -0.18416997443790925,
          -0.23542395924164536,
          -0.20841596571421575,
          0.4166990258185221,
          -0.3248928274509827,
          -0.12755520485370242,
          -0.2529207349759788,
          0.1310028637283956,
          -0.05294920133467077,
          -0.12318633273167735,
          -0.12439994455247003,
          -0.22035367456448252,
          -0.062499368889121984,
          -0.17707647026957013,
          0.1501111141311563,
          -0.32727371294537705,
          -0.2740096086928203,
          -0.11423944466858266,
          0.050164683698017215,
          -0.0436933686535589,
          0.12056185078530346,
          0.2913883074254258,
          -0.058645401739203434,
          0.05503216332695232,
          0.23634899644052293,
          -0.06437156004540513,
          -0.22881184580355665,
          0.012164008289839273,
          0.1858802330240645,
          -0.010265562539038806,
          0.1743488804549095,
          0.2582006456629271,
          -0.0533804402379074,
          -0.13767062220304788,
          -0.04569406596384052,
          0.0702867786998929,
          -0.01746817502023749,
          0.22479140234588627,
          -0.10123952937821665,
          -0.1258597976252925,
          0.14816350236290488,
          -0.05697546655873571,
          0.10388489444702459,
          -0.10979330895706234,
          -0.26888318685693263,
          0.14673085562207253,
          0.2900326501308033
        ]
      },
      "biases": {
        "rows": 1,
        "cols": 10,
        "data": [
          -0.009219118502254394,
          0.04725583331828721,
          0.0039006999072359358,
          -0.06510691185810422,
          -0.0060910496445740776,
          0.03989661749503313,
          -0.006840568258423442,
          0.0033696061114870295,
          -0.03229636528379283,
          0.025131256715105556
        ]
      }
    },
    "layer_1": {
      "layer_type": "dense",
      "weights": {
        "rows": 120,
        "cols": 84,
        "data": [
          -0.18675571979037273,
          -0.04830327932764462,
          -0.15675512902046138,
          -0.43524461089710675,
          -0.06688292471724118,
          0.07374308328179398,
          -0.22775604863090823,
          -0.16955327169626513,
          0.22283894874061283,
          -0.036859210666028354,
          -0.12412951586505486,
          -0.07766229820395648,
          -0.010593800939770965,
          0.07771020662362246,
          0.02325500933339432,
          -0.010035458280919599,
          -0.028612311492319523,
          0.03485665073805482,
          0.030889636318853775,
          0.12086697140744693,
          0.07495074922001095,
          -0.1510566380485973,
          0.16567618050078065,
          -0.052343684618788876,
          -0.11326983666152789,
          0.08223843538455601,
          -0.06131532837639028,
          -0.02720152116044795,
          0.13813224801162152,
          -0.09029983290770194,
          0.13461267356332085,
          0.03793758259474415,
          0.0013517688173822994,
          0.13184167939427766,
          -0.12765007560412203,
          0.022506773750487725,
          0.11634576847165459,
          0.14375409471901118,
          0.11142237162226572,
          0.006752575593973147,
          -0.0073667432302083335,
          0.14767515813301293,
          0.07873099072781792,
          0.19255963604617993,
          -0.09989919677048244,
          0.10399842283192472,
          -0.06712209696857617,
          0.13904249519623826,
          0.27938041734560776,
          0.10724803864139584,
          -0.15857647667355707,
          -0.05754701006401701,
          -0.14799097047618168,
          0.21066517682622704,
          0.011250864994151203,
          0.12217005430860518,
          -0.10577057160149282,
          -0.1284726941328479,
          -0.05711102546612709,
          0.0858342859644501,
          0.08816846212326503,
          -0.12518700717274017,
          -0.004529484400998772,
          0.08229517006252078,
          -0.0974020852676597,
          -0.0022699549185998154,
          -0.023719363230192553,
          0.03262586947816326,
          0.019276253573020125,
          0.04874675729919218,
          0.19381807968971387,
          -0.1787356007022915,
          0.07868007348183105,
          -0.10078790061412302,
          0.08162874846763549,
          -0.25536590167516926,
          -0.05684931917975409,
          0.15349907264097937,
          0.005040774544250718,
          0.16347711742829174,
          -0.2243209441424716,
          -0.17904182082876186,
          -0.11849295406345992,
          -0.12489230949250321,
          0.1203350750847858,
          0.08289719291669646,
          0.08100583022149213,
          -0.0419708066517132,
          0.07068232554884078,
          0.12636715887403793,
          -0.018034515909782008,
          -0.21313852727872173,
          -0.38710180090810326,
          -0.02688266354580123,
          0.05859787836271052,
          0.13394772848531208,
          0.11183181505987719,
          0.12203806022994186,
          -0.0916547542015425,
          -0.17416888935621908,
          0.10991423030720764,
          -0.14773303770223153,
          -0.05598188012810279,
          -0.28329617613593533,
          0.01225101571086078,
          0.024839828370473372,
          -0.13123806465555507,
          -0.2219011083848065,
          -0.11589058683878167,
          -0.2275070004953793,
          -0.27763953022700083,
          -0.0710889634350264,
          0.24471583734834215,
          0.010469712257484508,
          -0.1524685646299863,
          0.20075087854952273,
          0.12049264219875296,
          0.2479560257912898,
          -0.038902852681210534,
          0.21681780593593203,
          -0.23709508019245143,
          -0.13221529924989553,
          -0.14875016212585723,
          -0.02095521370428543,
          -0.10273355153055222,
          0.010756173602033084,
          -0.031570161506080406,
          -0.0846821529958956,
          -0.02871352240093249,
          0.08390055880552758,
          0.049875391715126165,
          -0.011112653255588295,
          0.03403490863582134,
          -0.006240008922264158,
          0.22193791584153488,
          -0.06026192871691165,
          -0.0213714028888396,
          0.06599793075353247,
          0.08040202081804766,
          -0.09499832383771338,
          -0.011402396165909594,
          0.08384865906712013,
          0.19242958228586174,
          -0.32943306821081314,
          0.033849388252273446,
          0.08202718523032686,
          0.1283772479596199,
          -0.20254974568173786,
          0.06737182273373724,
          0.18029273145119135,
          0.02699581134721129,
          0.08167206922423635,
          -0.020560125788003914,
          0.11602142924857793,
          -0.1696561490243899,
          -0.048356693369928705,
          -0.2022851436870583,
          -0.06325678368350308,
          -0.07251561728328133,
          -0.0732268662403052,
          -0.18294674430602048,
          0.00016068984995392765,
          -0.08282388530579439,
          0.003054894663215944,
          -0.015060678705731297,
          0.015099981429739989,
          0.11324261429158676,
          0.16944579613608463,
          0.1905190957122256,
          -0.17585077026864704,
          0.10044109731391593,
          -0.06624472286130852,
          -0.044247037799260695,
          0.29447939708501525,
          0.06669479970907748,
          0.12478670041158323,
          -0.03185466414298077,
          0.2500367386602166,
          -0.2041654067690311,
          0.2835589791693765,
          -0.0033989905329378494,
          0.08161611088297129,
          0.1075537645900829,
          0.008460219150164754,
          -0.017595182732139662,
          -0.15117378849515684,
          -0.12013067168392984,
          0.12840354577514063,
          0.1137230217137032,
          0.07439321910818049,
          0.004988353479114372,
          0.017422785419805204,
          0.046158829928089194,
          0.08067736445398922,
          -0.28089934168719566,
          -0.16135866093604972,
          -0.13311447685117944,
          -0.14398717587243273,
          -0.2596253306744988,
          -0.00273475003546555,
          -0.12013914448649181,
          0.07246783317448899,
          -0.08738037842125924,
          -0.26017932059044147,
          0.06200396567512997,
          -0.05612937645827338,
          0.13041787251875614,
          0.2037502045902892,
          -0.1563076735104167,
          -0.07494225073676189,
          0.003381976683860135,
          0.17222897359714964,
          -0.1837238929310907,
          0.14823924272865835,
          0.18575275240266648,
          0.0024676001527556657,
          -0.04441374694178077,
          0.1911791881153039,
          0.027418655334262566,
          0.00019872997657173407,
          -0.2327257244901016,
          0.015231463293420074,
          0.03749547147181185,
          -0.07198643462644817,
          0.06444803342424486,
          0.026593006833899147,
          -0.027081328486644372,
          0.1091327205555492,
          0.04490609030672919,
          -0.30597258452490955,
          0.013222218522274783,
          -0.02726147085725998,
          0.13145891646160254,
          0.1292266044314196,
          -0.03836330151322075,
          0.14716969723061119,
          -0.06289912481878901,
          -0.14364361104529397,
          0.05526600773545164,
          0.1380322012240879,
          0.059495516920930226,
          0.23302572293981363,
          0.06165171985932202,
          0.1598839873282948,
          0.10653147250802879,
          0.054265678483577134,
          0.07306642634002392,
          0.0176067571888871,
          -0.05272526144874826,
          -0.018731245031736586,
          -0.06131405935933792,
          -0.0071023187909986666,
          0.025283230527944164,
          0.07766834158724253,
          -0.0579021156272496,
          -0.12792950532395475,
          -0.13883565156381245,
          -0.04768418498050082,
          -0.11465305230308614,
          -0.05881844749608258,
          0.09626527228055394,
          -0.10935087565854386,
          -0.0411061760021236,
          -0.0872266187810238,
          0.10470083480928456,
          0.06679183105654819,
          0.026528309049941468,
          0.10561273150835455,
          -0.09067324167611805,
          -0.087062695477472,
          0.16397149718815943,
          -0.00017891255282841825,
          -0.0853409670256777,
          -0.2129317584956858,
          -0.03543355710764218,
          0.08210513500810973,
          0.10424423102792472,
          0.03394241322715251,
          -0.12718736289360083,
          -0.17372707695783157,
          0.046720216041052184,
          -0.08865814574638449,
          -0.12630422079131517,
          0.055628961711290795,
          -0.1895781438764169,
          0.0035227298822405485,
          0.06878151530851752,
          -0.2468912897469172,
          -0.06355148617626698,
          -0.0661988698888069,
          0.04563457211985197,
          0.15076179704373727,
          0.15952060210201632,
          0.06245786001316689,
          0.07282035857113163,
          0.07078935724945705,
          -0.07669887909506683,
          0.05526923200244961,
          0.01632488893490375,
          0.01619841693110217,
          0.2636678102412041,
          0.09690438473463397,
          0.08177371387323688,
          0.052356671138010194,
          -0.1225361067037423,
          -0.10871081599274193,
          -0.21769712097655483,
          0.04782018661978105,
          -0.16513130941443635,
          0.2109500042182408,
          0.13587199970949723,
          -0.01864592167686616,
          -0.018858332370460053,
          -0.10713404900614078,
          0.05329462741425503,
          0.06627923356702138,
          -0.09184448010103857,
          0.23436104306387723,
          -0.09648227562556722,
          -0.23436372914021383,
          0.054592080755912764,
          -0.01313585358973296,
          -0.08691682229975178,
          0.08747845103805284,
          -0.09151212005495322,
          -0.021545506252439266,
          -0.015207905752613417,
          0.13161466535474511,
          0.23172216573451931,
          -0.23000092371608205,
          -0.1542804870263016,
          -0.09985508866232938,
          -0.13632836612192634,
          0.05224472061553316,
          -0.025245109502990533,
          -0.07121221888714874,
          -0.039424726206583556,
          -0.2994239780914067,
          -0.16405205340393333,
          0.09775192577342892,
          -0.020537897870366913,
          0.04935916292888597,
          0.2011095183727687,
          0.16602042019235913,
          -0.11994103666091448,
          -0.24739409419770492,
          -0.075446691137243,
          -0.12722736830638137,
          -0.03882914032616117,
          -0.23312685873586758,
          0.12000677773005776,
          0.028409843818234685,
          0.00031903245595050225,
          -0.034671261540775496,
          -0.07211512902302869,
          -0.029058641734677607,
          -0.0026608542699754325,
          0.010492446590269515,
          -0.07354805201238927,
          0.06122808969555615,
          0.13459094975228394,
          -0.10910768623803856,
          -0.11479012180016855,
          0.21562266252908494,
          0.14660722638992085,
          -0.14979016441142343,
          0.07058947301092598,
          0.21908931607408877,
          -0.17474697427674007,
          0.04173416863756721,
          -0.12525009574063103,
          -0.17744502013278876,
          -0.0710677609590472,
          -0.23713708906811765,
          -0.15030955313520625,
          -0.05805830710753928,
          -0.09040905715493236,
          -0.06986296367753002,
          -0.027627655901872064,
          -0.1029421213398014,
          -0.11335862454355025,
          -0.24395015570847997,
          -0.14203816727182214,
          -0.004118035865620565,
          0.0063289812237248885,
          0.2263192044116383,
          -0.047099634312425476,
          0.010093940364223666,
          0.027171697628238862,
          0.00865366784298989,
          0.03832867875234282,
          -0.21021264677991408,
          0.0280282277427525,
          0.1008561918720072,
          -0.08891953450747181,
          -0.04411157559857897,
          -0.175321013657343,
          -0.18179628285426305,
          -0.13671054076594794,
          -0.13767048732020845,
          -0.13838498791722847,
          -0.08645743741441082,
          -0.3098784274232001,
          -0.2161264745601209,
          0.03534785600485909,
          -0.0109174205518298,
          -0.08171609506918132,
          0.14211125570974065,
          0.13590949467101182,
          -0.04097950723042519,
          0.00047615802112938456,
          -0.04822854987351816,
          0.05586933147000208,
          0.03727109887752943,
          0.2208716754451938,
          0.17863644174662474,
          0.027269252732088998,
          -0.14894207246470034,
          -0.04171679959936857,
          0.029677413042551753,
          0.028359005557296736,
          0.06651808702239694,
          -0.04396441156356762,
          0.02896769204836577,
          0.016428584097560147,
          0.1892512106798539,
          -0.22640113984081053,
          0.04394458128190659,
          0.15986468619832844,
          0.1970135288320015,
          -0.13082176232560908,
          -0.09108766721998145,
          0.14432358511556276,
          -0.08760389002506647,
          0.00884942033641195,
          0.014090956248567264,
          -0.022416809639758558,
          0.03721955937843841,
          -0.02890977646583666,
          0.09651162029598868,
          0.05721716841103664,
          0.08597744387377002,
          -0.09079491327440646,
          -0.03455008159251773,
          -0.0956402874225755,
          -0.05576162903243237,
          0.10349844097387634,
          -0.1470421359500096,
          0.05134847588526671,
          -0.006446302032865212,
          -0.13944672671272879,
          0.06928025037697941,
          0.11248182107173045,
          0.12354303613493386,
          0.024544445432222513,
          0.036477377675186974,
          0.19268510803474892,
          -0.11170493656586483,
          -0.02183555029343069,
          -0.043064683359762844,
          0.0014239167073065067,
          0.05438030231178053,
          -0.159051531818896,
          0.12343598381448265,
          0.3107126852973076,
          -0.1436866418916152,
          -0.1981467283244837,
          -0.24363747526073884,
          -0.28811033329482905,
          0.16863531389598535,
          -0.06904538046804053,
          0.2933832545928509,
          0.014230952545268967,
          0.198796708111468,
          -0.007838972922373877,
          0.002849139082761673,
          0.19954577257006975,
          0.32400341540593,
          -0.09934977496497424,
          0.12089607159470236,
          0.045179751103674747,
          0.01032281482393348,
          -0.09107634124530838,
          0.051143500353821814,
          -0.07443084335251558,
          -0.051647697122687575,
          0.015897658672217384,
          0.003400325051709221,
          -0.09924209613056342,
          0.10994401045803365,
          0.10438116321782827,
          0.17712051308455562,
          0.039802467044170425,
          -0.0720115281860163,
          -0.14977036165933902,
          -0.11674750528728962,
          0.13736400195486478,
          0.3065569084054393,
          -0.01710943619798876,
          -0.036223694165083406,
          -0.034611889934071736,
          0.008410334824066432,
          0.11381280330042062,
          0.11540595787103157,
          0.08646992827328477,
          -0.0800373297863345,
          -0.19663256989279912,
          -0.16498583678923046,
          0.046102872547097114,
          -0.05911812653933775,
          -0.15770152673110482,
          0.14962734973054428,
          -0.08096656929846843,
          -0.3367349357703053,
          0.07408997456158564,
          0.14536540983812124,
          -0.12316243318478587,
          0.09869671723911379,
          0.02340499916281336,
          -0.07626454269147642,
          0.00552097135254618,
          0.040484708106604636,
          -0.31053348227306315,
          0.09567504252821624,
          -0.05418019323651259,
          0.10974589745049743,
          -0.044082855539204956,
          0.05032869891733412,
          0.14863971284713895,
          -0.017622159033127024,
          0.035904582922415905,
          0.032370780502014807,
          -0.058935292700073534,
          -0.06688234400542939,
          0.08957345462968706,
          -0.04486158053971633,
          -0.03547635194491914,
          -0.1646527404989355,
          0.08410226907721902,
          0.00335053108012924,
          0.08125872686318678,
          -0.2325773442655315,
          0.05366280210926166,
          -0.14737178363909992,
          -0.12716667682454233,
          -0.01534042605536367,
          -0.12207080645375762,
          0.04462199736943869,
          -0.12771773439918221,
          -0.018247868787952367,
          0.009609026190882957,
          -0.2095266361387316,
          -0.045857771614193917,
          0.09636944164427201,
          0.159893657318228,
          -0.04079016673364801,
          0.11669269252566053,
          -0.08962697905786711,
          -0.03392075757136045,
          -0.08171164853789933,
          0.0019330194540411233,
          0.15510173292770454,
          0.2740981016005481,
          0.10974788991026418,
          0.060000301441602684,
          -0.18487384165068055,
          -0.02053950279678313,
          -0.09467203016994208,
          -0.021048393460110587,
          -0.1602650611737137,
          0.14759493612193259,
          0.1576060172270487,
          0.08600588649240361,
          -0.023177622973436115,
          0.03617714205634701,
          -0.08160048407145594,
          -0.11927193390940038,
          0.0009021832133963204,
          -0.1998891175744207,
          0.0927102868656847,
          -0.021236635598952468,
          -0.13934189253969811,
          0.34621506041838696,
          0.0031302517681705564,
          -0.0799410086904141,
          0.01404256327001251,
          0.14153058373203334,
          0.1354211774762563,
          0.03666192925159666,
          -0.15390007437769107,
          -0.03499686039522217,
          0.053316403662754044,
          -0.06828807630286861,
          0.10476955241006393,
          -0.09977320333840231,
          -0.18735334751838212,
          -0.2727314943419701,
          -0.023486710563987708,
          -0.01674302565458112,
          0.27607279335033497,
          0.06369796974699221,
          -0.16637910562938507,
          -0.02841075712881544,
          -0.09795267531940495,
          -0.08550476154216197,
          0.1384127408946387,
          -0.13798613020546843,
          0.13597835473186556,
          0.039011353941902194,
          -0.10505418340485982,
          -0.13768554520212153,
          0.0970233207261473,
          -0.1681518046462669,
          0.1593704359609854,
          -0.03903889037766628,
          -0.25172490995913177,
          0.13576363009450848,
          -0.025661882763069636,
          -0.13701848561539334,
          -0.11733370108947537,
          0.004240655329332772,
          -0.015170366179568172,
          -0.11219916783212026,
          -0.009244185695059024,
          -0.02283595268249256,
          0.0326949318240781,
          -0.2327163120550489,
          0.10508833581962501,
          0.08954385675696892,
          -0.0166756793389422,
          -0.08803875351906149,
          0.07741627692745619,
          -0.10996269828952837,
          0.08799022494250408,
          -0.16619046329597642,
          -0.06451839282937238,
          -0.19131326283828032,
          -0.23607266993528322,
          0.13545322426537745,
          -0.019264083871980642,
          -0.11714647520185878,
          -0.033250782053244714,
          0.20265531074474286,
          -0.15875969378274862,
          0.27166617636534346,
          -0.048195612746394584,
          -0.0933716171026213,
          0.016607342501537677,
          0.08119401289505981,
          0.1573106868266349,
          -0.10579389202291353,
          0.05828139281467676,
          -0.04956478879555962,
          0.198887061618208,
          -0.02271665234851726,
          0.16192237101503373,
          0.1456898011511318,
          -0.05433158322559739,
          0.07457754730948578,
          0.043037275379004314,
          0.19698193076848658,
          0.0953243468115339,
          0.009547811528941085,
          -0.20299306622199145,
          0.12087687839606558,
          0.12333155134574465,
          0.04600028530926348,
          0.18096685284848288,
          0.3157016620594802,
          0.001988318855543252,
          -0.15536451994168587,
          0.02472690574600315,
          0.25817412096374204,
          0.1447665594661398,
          0.14319133880983276,
          -0.03008534247578407,
          0.12653992139505948,
          -0.10211404847136026,
          0.15500139567149712,
          0.051270206789636785,
          -0.0741602947148209,
          0.04458958127770888,
          -0.0942539170787195,
          -0.17622762286151272,
          -0.24116244534019124,
          0.10120413632564604,
          -0.13332841027037431,
          0.2222403988730903,
          0.06436647201495452,
          0.001129072281188715,
          -0.07542491366405454,
          -0.04182652194442108,
          0.20400413035914652,
          0.12212963875705328,
          0.04263237356541974,
          -0.11516232752263801,
          0.14743407444619105,
          -0.04411395004201461,
          -0.11321772384660587,
          -0.06643434021109144,
          0.05757949738430216,
          0.16065998930521386,
          0.2556429204047245,
          0.05124765016984106,
          0.13809212995511272,
          -0.037595528128573766,
          -0.14967033991190426,
          -0.06635581720842662,
          -0.03695052696877393,
          0.05194735881142242,
          -0.1946654322029286,
          -0.23316577146031184,
          0.05558094910361396,
          -0.06732500879242012,
          0.20921093929277632,
          0.18059715953405503,
          -0.19591288677239851,
          0.14048221114208684,
          0.011511021940424495,
          -0.049953552810850996,
          0.04078857576074245,
          -0.15011161230114423,
          0.004387914495494909,
          0.0816940845511373,
          0.2543710439516808,
          0.024759857654961744,
          0.1335381467779964,
          -0.11285883006076397,
          0.18188058841468102,
          -0.14433266134408973,
          -0.025601923857159998,
          -0.14589443000783872,
          -0.061404257473871404,
          0.09184880366812509,
          0.1983471438686018,
          -0.07305082497082846,
          0.050998905100700626,
          0.10330153810480272,
          -0.04281923853246945,
          -0.16963281918323045,
          0.05745703120600348,
          -0.056426607337798744,
          0.23671401306914028,
          -0.04579808496674867,
          0.0502880741245397,
          -0.15321081044499246,
          0.019607789290878037,
          -0.09897155263511735,
          -0.01912383746750428,
          -0.11610730197069863,
          -0.06312470171767194,
          -0.16233700620208788,
          -0.055306015688521386,
          -0.12957072894457886,
          -0.0034737634857115052,
          -0.044181846466267785,
          0.1118025221487421,
          0.027661426161848534,
          -0.005910470892015355,
          -0.020619941935864385,
          -0.1471272310222604,
          -0.09408657433922342,
          -0.03683870115850607,
          -0.027899544566938366,
          -0.028181800506949174,
          0.15798588488960272,
          -0.07649579011769604,
          -0.06625722525525912,
          -0.23684696388145154,
          0.044702840392255534,
          -0.04984057372217055,
          0.055968554198731015,
          -0.09964125265575467,
          -0.16609026213721498,
          0.10241410007410996,
          -0.07555063117897082,
          0.012437036117783143,
          -0.041557146996328134,
          -0.2556283513739897,
          0.046521837071901634,
          0.1636830222877452,
          -0.1646083177757623,
          -0.1993072162336922,
          -0.023922309743273473,
          -0.15941531146272692,
          0.08590448052995413,
          -0.057352620602720526,
          -0.07764322456317722,
          -0.16963331840477897,
          0.06532556308659843,
          -0.10084753625181926,
          0.07110602207019445,
          0.05238545459327227,
          0.08839755933892376,
          -0.1405185766336339,
          0.13264975691578482,
          -0.15653437813186208,
          0.037628927737939986,
          0.03968388720852815,
          0.19757337577315157,
          0.1182720732625146,
          -0.041859197760098076,
          0.023216020359212608,
          -0.0639866803482572,
          0.027854591882533006,
          -0.11710673005173296,
          0.18055444202237944,
          0.0645400156242358,
          0.0275696724489366,
          -0.06042107114665141,
          -0.012681880665175366,
          0.02884104908819538,
          0.03841740691387912,
          0.10931120971350272,
          -0.08890964935775425,
          0.02003062730352547,
          -0.024494543808046033,
          -0.0422410771435135,
          -0.07367782874139342,
          -0.21521571208636445,
          0.004375719937212365,
          -0.1565670385354938,
          -0.23561724576750068,
          -0.01225402227306082,
          0.04737863243999093,
          0.05048557822471635,
          0.011099512917800102,
          -0.1601336877945291,
          0.07965321545847104,
          -0.026746300185225537,
          -0.25359861963635,
          0.05758175342461463,
          -0.1526845387269914,
          0.030390991318480914,
          -0.1596545120662072,
          -0.006091133164422317,
          0.10892172892750943,
          -0.0006494254959750432,
          0.017918143495609138,
          0.011154283032745413,
          0.048218729633187324,
          0.13734949246586184,
          -0.13660353625678548,
          -0.05962375328705005,
          0.026486442482841356,
          0.03912354094337961,
          -0.058623110239405425,
          -0.2733159248466249,
          -0.01737119580041685,
          -0.20198081805139867,
          0.06215330529056146,
          -0.022762554822282174,
          -0.02924928732467664,
          0.054354342527318814,
          -0.05106154566471399,
          0.03675896066516224,
          -0.021364079047574286,
          -0.05631373062304659,
          0.24791881804486285,
          -0.16046456501314188,
          0.16431023474590517,
          -0.17352365296588246,
          -0.15778277886097875,
          0.16298611540377672,
          0.1496250914119863,
          -0.14196541133826723,
          0.1829152732362063,
          0.050261797294112516,
          -0.08269455725849516,
          0.05930722265905711,
          0.16769472197675803,
          0.22421566877199806,
          -0.10677093354450934,
          0.021226678974519013,
          -0.07295514140790525,
          -0.054578800977301854,
          0.04379193807886272,
          0.037882252751912586,
          -0.10130822750530988,
          0.21319038017729822,
          -0.15339788817849745,
          -0.09339207976811828,
          -0.015525177998872616,
          -0.1369852668404909,
          -0.18144386447477878,
          0.20177787872122946,
          0.44146692607875165,
          -0.0792860788381953,
          0.24824944109680938,
          -0.0035158196672042895,
          0.03895041343037664,
          0.02316986875180257,
          0.11946381689351696,
          0.08018571564372376,
          0.1641865766289549,
          0.06124749018034099,
          -0.0037743999948071406,
          0.16678858955548723,
          -0.16675017774071801,
          0.1513082267213228,
          -0.25580083719792013,
          0.10217874366542742,
          0.0881713416633857,
          -0.15468201063212958,
          -0.0755212503398195,
          0.11005319750639007,
          -0.13574223034547486,
          -0.015824005280854685,
          -0.00410440168203084,
          0.12509921838834567,
          -0.27305692386437946,
          0.11759448627333938,
          0.16160033982572405,
          0.1079039952975048,
          -0.03405324013991257,
          0.023544049470424776,
          -0.07268726807797306,
          -0.029426399733230774,
          0.1376585394894843,
          -0.2689090753116305,
          -0.10367757493859223,
          0.06039668369006845,
          0.03787713369333852,
          0.07137675787878993,
          0.1336316160487442,
          -0.13081653356503484,
          0.05419053396765468,
          0.016018989869731038,
          -0.16294969674615162,
          -0.04092634507870592,
          0.18257939058793068,
          0.02058756859495281,
          0.03494366180914515,
          -0.11573443650236376,
          -0.02665731011020221,
          -0.06460259676098504,
          0.05020879108391499,
          0.17835990091466009,
          0.32381359446372127,
          -0.3421894751327111,
          -0.15870460101899214,
          0.16131134753951037,
          0.020123528938030193,
          0.1913977613281498,
          0.0999552677071356,
          -0.04617757575887334,
          -0.18057912574625043,
          -0.03238412368089427,
          -0.020931934634334227,
          -0.08481544440650507,
          -0.06568292599155304,
          0.06786592101144778,
          -0.16501258255696458,
          0.08900876615712197,
          0.0014487051667679358,
          0.013053776274728665,
          -0.049689245549888836,
          0.02419107123157469,
          -0.12801483191479426,
          -0.06897014691078059,
          -0.021219412159379416,
          -0.020330908306372075,
          -0.058613394558477465,
          -0.05022776804803004,
          -0.0026463946375846286,
          0.09635835369398137,
          -0.12397149636102935,
          -0.14575013346443866,
          0.055004652293229844,
          -0.06256600025881504,
          0.07973870644499029,
          -0.15956053265327597,
          -0.005361484994244032,
          0.16692201500851478,
          0.1874542787967455,
          -0.05081297047179574,
          0.3291211340366339,
          0.1474742674700434,
          -0.014979755378677115,
          -0.3041348498761238,
          0.21004500809180862,
          -0.19269802239382514,
          -0.20419117634688064,
          -0.08743942326028152,
          0.007698543391917038,
          0.030817770571141358,
          -0.09241801175956922,
          0.038798315258323474,
          -0.06748829588607032,
          -0.12541396942759403,
          0.19933708268041486,
          -0.05735981512897722,
          0.09896067592054897,
          0.18237264821429883,
          -0.02298651267077998,
          -0.20030161496443716,
          0.22171140588369742,
          0.1438479436891648,
          -0.15076947178046077,
          -0.14963850718382812,
          0.015564142274179661,
          -0.05979508550286788,
          0.06155004585832869,
          -0.08923070879030919,
          0.04371184745676878,
          -0.023190756624206707,
          -0.05013643458294072,
          -0.1311753548783618,
          0.14571308796376473,
          -0.041823372798629396,
          0.06781473551426967,
          -0.016532553684811043,
          0.11244648838438351,
          -0.01925585080986821,
          -0.09042441825517043,
          -0.03469322112865919,
          0.017616000388022485,
          0.10341582221429864,
          0.027400129352412025,
          -0.052006207546004574,
          -0.13837893930180592,
          -0.08380215251534477,
          0.059628425579695936,
          0.026109386552181195,
          0.05191362438987506,
          0.18022105820697457,
          -0.059405553178537726,
          0.1451821239081624,
          -0.16625126279975047,
          0.12870110167133747,
          -0.0157923700288453,
          -0.03523575438651269,
          -0.1316311714974826,
          0.022556908400634238,
          0.03127295337818518,
          0.08570528037923965,
          -0.023431803444011495,
          0.12328125885127239,
          0.06374827782456396,
          0.19378812612549595,
          0.018422696182715848,
          -0.00566783260125247,
          0.05818815700299568,
          0.034555588477611296,
          0.022394981036256697,
          -0.0927253763576573,
          0.07868222334614627,
          -0.019570948163733646,
          0.033615844941695346,
          -0.10005148989765843,
          -0.17780340844129364,
          -0.04941381134550191,
          0.10662461874343052,
          -0.16361991368740536,
          0.05777514775278673,
          -0.12923682298568331,
          -0.2501936020599799,
          0.0193585017013562,
          0.025298869788084048,
          0.15244307755809877,
          -0.11061323174145808,
          -0.054277903288307124,
          -0.06355713733636537,
          0.06582625767073406,
          0.011965372185722292,
          0.17850703119293665,
          0.19819893318687823,
          0.0007157673346444231,
          0.02701034456944796,
          0.06054265151331068,
          0.01942911714076468,
          0.080429611745353,
          0.04810578460026608,
          0.031159479916516217,
          0.005995035776138231,
          -0.20671743727717473,
          -0.11671593804661645,
          -0.05036521621525383,
          0.21050817962738516,
          -0.13229083389892796,
          0.005347546038895003,
          0.01711793797103725,
          0.0501905494056145,
          -0.033061058195649126,
          -0.0661711584112702,
          -0.10322080533072953,
          -0.01874291574247353,
          -0.07528308484977454,
          -0.09063411399235957,
          -0.2677599980978145,
          0.01826135199729929,
          -0.05841237733257632,
          0.24279856177260975,
          -0.018329068703905688,
          0.06587040450303698,
          -0.03243553274583428,
          0.10815226011090419,
          -0.16913444519420892,
          0.018628196055901918,
          -0.045858453481204105,
          0.10899713807955645,
          -0.031161552063957095,
          0.22050408367699106,
          0.10507894254704957,
          0.13902038823065965,
          0.07781604373374582,
          -0.22354726587403378,
          0.0013732061817816159,
          -0.00018634751820873575,
          0.19923340514934496,
          0.12896515330802064,
          0.05880130967127094,
          -0.10963954333084056,
          -0.12019483747441245,
          -0.00961729825278529,
          0.029362822565118074,
          -0.04751792707919923,
          -0.03631321484103921,
          0.32519278567650584,
          0.044394796518989754,
          -0.12770678930772902,
          0.1607581006830797,
          0.06176746466402947,
          0.1651249379024508,
          -0.12443100475190914,
          -0.02011255236666636,
          -0.09384502769163891,
          -0.09823341498157481,
          0.049457154685331,
          -0.14844432365712762,
          -0.10148060050881458,
          0.15828573636657042,
          -0.056721008652562604,
          -0.03776631891786326,
          0.055485399984162014,
          0.1586397248712828,
          0.11599835907815814,
          -0.07300717154375742,
          0.028915722296531436,
          -0.14890703917773568,
          0.3258500019839055,
          0.0270773290647393,
          0.21021989958408324,
          -0.05514620955045884,
          0.07675758865810917,
          0.07744314564794029,
          0.07519915999839169,
          0.13293778386659716,
          0.30825541889556335,
          0.11951408903663578,
          0.3097771028003891,
          -0.19780532301046952,
          -0.038861924100069035,
          0.07977221929448983,
          -0.009261522231786713,
          -0.01666566553135437,
          -0.05021719676641258,
          0.021994364534642687,
          -0.04934136951691885,
          -0.21107351246365966,
          0.21814052100810566,
          -0.01826421235808043,
          0.08397643742416941,
          -0.03706544553218901,
          0.024797598466174364,
          0.03393802230636275,
          -0.05585945505218576,
          -0.15367211336646514,
          -0.007212990541153225,
          -0.10259338520869625,
          -0.005382987281936417,
          0.2259674720534866,
          -0.13917572434298447,
          0.2355195421148589,
          0.09907877118445141,
          0.051245372178892065,
          -0.09192190527130127,
          -0.0679342581662229,
          -0.1578522318839383,
          -0.09839416817009904,
          -0.060655717854616056,
          -0.09752915117296455,
          -0.09926267228164545,
          0.2710793141637389,
          -0.2553051233850214,
          -0.1633726324349931,
          0.06737668512383903,
          -0.27590529414397325,
          -0.11508373994919462,
          0.13486496472809373,
          -0.0035020742418405467,
          0.15995899364824975,
          0.26502204630031184,
          0.0741957881915438,
          0.03256607777433784,
          0.023055007435429764,
          0.0320946570323581,
          -0.17848673817286917,
          0.010510096465365189,
          -0.02791134057311701,
          0.11468285362168024,
          -0.15123061693193574,
          -0.06595468980331444,
          0.06758803653033515,
          0.1099337896062822,
          -0.30145225200076015,
          0.03090702648204206,
          -0.002375490366209697,
          0.10067997087860844,
          -0.08732521985889084,
          0.014477756465939703,
          -0.10285106870195684,
          -0.03519764074896503,
          0.03859931725271954,
          0.10288813806460298,
          -0.10927787892525119,
          -0.015855874637876598,
          -0.1160084824926165,
          0.37049419684424867,
          0.07777675294314346,
          -0.011334007222914326,
          0.12381859349173441,
          -0.3072376625284317,
          -0.075698585783762,
          0.08075260013860022,
          0.07369281922715473,
          0.03960792380119118,
          -0.007240965805498349,
          -0.03038484589994927,
          0.06923780643923232,
          0.03100644974864503,
          0.08624327031890579,
          -0.008245662648837629,
          -0.019850200400457724,
          -0.08165046232036535,
          0.022349560153044075,
          0.11749036185328025,
          -0.2614070495829329,
          0.08400497366545008,
          -0.14064493595619026,
          -0.09542945455389519,
          -0.23801408658552325,
          0.07009228226620473,
          0.07067939442003837,
          -0.025462934843829603,
          0.11518578205018838,
          -0.01833082745432041,
          0.13483896712656343,
          -0.08509435429990544,
          0.002421115969140888,
          0.1924877627117882,
          -0.1481604621091573,
          0.0524926924183396,
          -0.20681805743918155,
          0.03159397004093939,
          0.12398816061337065,
          0.054416375302189235,
          -0.04476622862221672,
          0.040376631167900065,
          -0.017837016729455403,
          -0.19085865962950357,
          -0.3135856816665533,
          0.006039102837399453,
          -0.06953268923999435,
          0.011580041825755857,
          -0.03520936843891298,
          0.10145568740476606,
          0.08371194349714335,
          0.20972035564629107,
          -0.09399686967773553,
          -0.23934733988241008,
          -0.11355663567290908,
          -0.05438418350893898,
          -0.21857598377178183,
          -0.1780322894821276,
          0.2053224588503447,
          0.3119977920391035,
          0.06389666008833751,
          -0.14786001875496527,
          -0.01754551699380651,
          0.011096998226862618,
          0.15337475754830504,
          -0.08421167100554099,
          0.08706298765858976,
          -0.3202912535837464,
          -0.06149185594758027,
          0.0377028711722754,
          -0.051098900636812376,
          -0.14336132493699189,
          0.3926077278331116,
          0.07935530991532891,
          -0.058224560077382186,
          -0.1033956475753749,
          0.0066384487644698025,
          0.054717442554342334,
          -0.10783762369025338,
          -0.1071845744505349,
          -0.16718359896314078,
          0.05276565806497043,
          0.05653329515594084,
          0.013180723648450597,
          0.0032503833863310443,
          -0.1373907398585707,
          -0.18671876365484955,
          0.2860175362628238,
          0.10231283903227796,
          -0.014544714832806567,
          0.03926750661503552,
          0.0967162460536336,
          -0.08146061255042997,
          0.02937815953465942,
          -0.057255257949030906,
          -0.03860722864288727,
          -0.18444135552994362,
          -0.14146341898550926,
          -0.29052486723254595,
          -0.05921408952744973,
          0.30825498489729963,
          -0.036737366277078985,
          -0.19909504265138597,
          0.1517508652970867,
          0.15240598310258976,
          0.013646852734771231,
          -0.25107332875750527,
          0.01861512559191641,
          0.1032102485420312,
          -0.11129580486230985,
          -0.269631606542446,
          -0.21675387379675273,
          -0.306485281297202,
          0.17987898196919377,
          0.03257852979373246,
          -0.136087237868774,
          0.02221515501994028,
          -0.19971316385009488,
          0.036296062932278585,
          -0.0763549373458073,
          -0.00907689839683747,
          -0.07779581084499428,
          0.21912783464219884,
          0.08389650276705411,
          -0.11119831006448898,
          -0.04477824683576454,
          -0.0016254035776641956,
          0.02950206496124873,
          0.3023979660760434,
          -0.0668864118091711,
          0.19467189289942177,
          -0.022775503957494586,
          0.21913099817015763,
          0.1445412246071689,
          -0.21466041628027413,
          0.011336834001005366,
          0.13265263482890857,
          0.027102805702552215,
          -0.021634365363013004,
          0.08142940826012167,
          0.11156502725571148,
          -0.2483897742525208,
          0.02719794432906334,
          -0.08629891635596312,
          0.18866542283345153,
          0.06764967781273099,
          0.17167479079553413,
          -0.13040748636787,
          -0.101325705566732,
          0.17876212175630038,
          -0.010880396120411527,
          0.13623860094483853,
          0.12840671739508688,
          -0.15705645367324936,
          -0.13388771034026514,
          -0.20509177885657856,
          -0.19928157643669875,
          0.11087076836239593,
          0.04061569587335703,
          -0.16948336099318945,
          0.11165461117572241,
          -0.013392865458570278,
          -0.00452322905805898,
          -0.0025003994663691785,
          0.30860070745230417,
          -0.018984471459493956,
          -0.17540327605627873,
          0.08033722471116694,
          0.22898830342918366,
          -0.1475634965720676,
          -0.0475395714950514,
          -0.0160896402405722,
          -0.16185365376671976,
          -0.10015041176282287,
          0.03842588578774248,
          0.03072836562965255,
          0.26854475941072975,
          -0.23349447866144069,
          -0.24405201291181944,
          -0.14756361097812623,
          -0.02085602922619805,
          -0.013129918966030924,
          0.16712733498221594,
          -0.11046733109325438,
          -0.07844493922274588,
          -0.0669349700619001,
          -0.08841319216787964,
          0.1199086945752972,
          0.20119276590056312,
          -0.154386608243887,
          0.051011982490713495,
          -0.15713284782364295,
          -0.0446025424235997,
          0.09917437124977474,
          -0.11994028034151334,
          0.04659436753978225,
          -0.1742904046288254,
          0.056819524288837166,
          0.156175588875886,
          0.003482428272380051,
          -0.02712570138193431,
          -0.046787280890305684,
          0.07674073407033132,
          -0.07688904459939079,
          0.21566330958155672,
          -0.19439747043612507,
          -0.1758662290679555,
          -0.1605440847095238,
          -0.015143105804604757,
          -0.055177397448457045,
          -0.1447013122637913,
          -0.08939057237770666,
          -0.11340467120334861,
          -0.07920445944992657,
          0.1118273593500392,
          0.058960133501996186,
          0.08617216858272206,
          0.15782644563404177,
          -0.28172736264799897,
          -0.06246083695350736,
          -0.2176719005702056,
          0.12189170665884745,
          0.04330333673804176,
          -0.005036221815323997,
          0.06905704275604448,
          -0.08629551064488047,
          0.03961491445223277,
          0.018622464926953766,
          0.030798388559921706,
          -0.2146133340855587,
          0.061936442623183964,
          -0.05613462618079715,
          0.019368316394462043,
          0.04097527662755728,
          -0.03805800231310685,
          0.026263164766463183,
          0.03660654396843556,
          -0.008467770891139466,
          0.22650915278657108,
          0.03732059705271089,
          -0.20718649801665998,
          0.17221515993871725,
          0.131372800756142,
          -0.11147979406401727,
          -0.09371768532638987,
          0.11752509157295225,
          0.31476760011035604,
          0.17972456367830023,
          -0.2895642994781005,
          -0.09446897370200424,
          -0.005165367108192529,
          -0.2667850489208986,
          0.09492839522391631,
          -0.08772333150198118,
          0.024358514936952222,
          0.026771496015973846,
          0.13279639503552873,
          -0.13844920297722102,
          0.11872561091530968,
          0.14552406375008606,
          0.05613273953850451,
          0.03877964900989386,
          0.13651294851034335,
          -0.052737573250779435,
          0.18478740716053102,
          -0.04923805134085714,
          0.3753941198568478,
          -0.09432097553324306,
          0.041155513953632795,
          -0.02662743164202945,
          0.018799683011469625,
          0.017137713894441037,
          0.1213820679935119,
          0.20566825473034892,
          -0.17746880099337922,
          0.008335830669266813,
          0.04895095890838006,
          -0.10160557343800668,
          -0.005247606613794714,
          -0.12809734250025195,
          0.1165582285835409,
          -0.026696271208888966,
          0.04572473936321346,
          -0.06004501603355003,
          -0.11913520252418501,
          -0.19304987134524842,
          -0.0010018619233325787,
          -0.006131637065724413,
          0.06175429674275948,
          -0.17739616837527988,
          0.14131376907152599,
          0.13925201159312728,
          0.13200336246329739,
          -0.11380077564046354,
          0.07931449548198978,
          0.0828653571127758,
          0.021954710053069135,
          -0.13416211909642986,
          -0.141001249564488,
          -0.1688431396204386,
          -0.05163400444014711,
          0.051791216809579446,
          -0.23349825954778802,
          -0.001031974012203642,
          -0.09785939204290942,
          -0.05163498974937186,
          -0.17328019407478792,
          -0.050747730471482656,
          -0.027781521647162345,
          0.07075422548895709,
          0.06795662347215527,
          -0.12206045760938497,
          -0.03442786463794342,
          -0.053346884115570835,
          0.0016798098583702163,
          0.06278925964464507,
          -0.17740133203316974,
          0.09037370691705045,
          0.08286372276632305,
          0.1426320154083079,
          -0.020951128967777895,
          0.06524513276485185,
          0.14927951055682273,
          0.24357984980660527,
          0.08733528813509134,
          0.04199999972393396,
          0.1354371821080689,
          -0.05494481363178571,
          -0.0392536465192141,
          -0.047591275100311116,
          -0.11961579884953905,
          0.0253752369106965,
          0.049778949838099,
          0.03983017451551313,
          0.027362778872666825,
          -0.19163752191185937,
          -0.19131475242567086,
          0.00718292207202147,
          0.02231087253306713,
          -0.18526826801687418,
          0.020192766736459228,
          0.04248144713262501,
          0.07877835340436258,
          -0.3569777437206762,
          -0.09165700192629336,
          0.1400473657452853,
          0.018509794416583156,
          -0.19506638642661467,
          0.10731018296865608,
          0.10569360286888653,
          -0.05651757041324766,
          0.02479289234700197,
          -0.164346748455984,
          0.05700892231352438,
          0.16160956943505095,
          0.14788179826094372,
          0.20646239706610997,
          -0.24040947772866894,
          -0.08147975568849153,
          -0.14327723146619722,
          -0.08320851874049867,
          -0.2809112544221066,
          0.2175201958540041,
          0.10984138290423233,
          -0.11198166462399614,
          -0.07449605932900612,
          -0.03569406360363579,
          0.0956992987173247,
          -0.08034521199273635,
          -0.0017616068337387202,
          0.31307724867666725,
          0.0762135033754209,
          -0.02450943248482178,
          0.0011482851329996475,
          -0.3788188649977838,
          0.06721792887512419,
          -0.014090156133732632,
          0.1708669071961966,
          -0.29637696854920786,
          -0.189618504728578,
          -0.1711023921792377,
          -0.0533104492029545,
          -0.2767269637497359,
          -0.1592625373550216,
          -0.06109219636489631,
          -0.19153884604200527,
          0.13362219226584668,
          0.09406549305862177,
          0.2098674943438798,
          0.1078502508261348,
          0.17111930843506212,
          -0.025490138952313425,
          -0.01445488731103711,
          -0.33693474101372717,
          0.1631462014851296,
          0.17821616760993914,
          0.08997444401551569,
          0.1387123643040541,
          0.09870393926168262,
          0.24563783890808835,
          0.09351272493547365,
          -0.1342232484193968,
          0.15345177748761962,
          0.015199882444762896,
          -0.13389257612657618,
          0.1547586968747371,
          -0.05631052591763423,
          0.24518300092391163,
          0.0043372132879508285,
          -0.25275067734066325,
          -0.04213217794301276,
          -0.10079873516881918,
          0.1659266122319953,
          0.07658331175837392,
          0.2311990767553633,
          0.0889519136858147,
          0.041754202109532276,
          -0.0339278588691518,
          -0.15399631354444437,
          -0.0961783436401089,
          0.04251549833290428,
          -0.17117393358910885,
          -0.22890538194234694,
          0.015398564888953957,
          -0.26744670164447587,
          0.070225489843283,
          -0.014565981546958708,
          0.10131512334349828,
          0.08151136877040074,
          -0.059027693006212724,
          0.20545572471418272,
          0.14768663456831801,
          -0.17461381563088008,
          -0.06918706587641289,
          0.06781943562268096,
          0.20651154972735192,
          -0.15409629139166334,
          0.1235543986981166,
          -0.013188146582848824,
          -0.1115228442585464,
          -0.017542774578478568,
          -0.19913704896616638,
          -0.19618058972103314,
          0.0536385623733213,
          0.07136714176970806,
          0.1487539930520865,
          0.11384357033346194,
          0.010022671643863421,
          0.13977621832216477,
          -0.0053589801206089865,
          -0.01382410993603309,
          -0.00013222868318600467,
          0.018881269262981334,
          -0.052754293489886715,
          0.08434619011392688,
          0.038716116050315386,
          -0.14590409743058227,
          0.2069050725415448,
          -0.17009021456172438,
          0.03918763921558263,
          -0.07361492781125407,
          -0.1324545781994015,
          0.26293814082346234,
          0.027499030913528906,
          -0.004904068640185489,
          0.10730658123075207,
          0.027283296544122093,
          0.1765129687908544,
          -0.10727525999439982,
          -0.14688651520626905,
          0.002037575686948705,
          -0.19566820197752804,
          -0.1310836106525502,
          -0.03775256678228492,
          0.01760179862825074,
          0.21386453447449516,
          -0.09046578029788598,
          -0.04615984630550367,
          0.09468038501843043,
          0.02492780274592914,
          0.09031235176111523,
          0.08583525684164574,
          0.05859920421589113,
          0.03098412688234956,
          -0.09421617375472982,
          0.02757796095073764,
          -0.20335780992696967,
          0.18649896663110918,
          0.014066069365366111,
          0.20895655736039778,
          -0.11764353655168758,
          0.20746969053203146,
          0.048321077568573886,
          -0.09780626236905635,
          0.08100177305902088,
          0.13146942943550077,
          -0.04725724494966178,
          -0.06102720094459739,
          0.12964076437514627,
          0.015308930223381572,
          0.16888233493614785,
          -0.03896903759044627,
          -0.43744509141385773,
          -0.11063324711839075,
          -0.22241289012399915,
          -0.043656881960206985,
          0.09443849307531611,
          0.05265925947868385,
          -0.0029471729529194596,
          -0.10781875757050424,
          0.12660376604573043,
          0.18170674829361502,
          -0.08274807288369421,
          0.22110781928737716,
          0.0034020999813942163,
          0.10048107579156845,
          0.14197635809979717,
          -0.032215673031878944,
          -0.02327210046537538,
          0.12246746267137955,
          -0.2129163204062662,
          -0.05900668405566184,
          0.19762445364942813,
          0.22941197963338605,
          0.22609638738431742,
          0.3842636686050506,
          0.152680442050115,
          0.07706463350184668,
          -0.05397570318734979,
          -0.1682386106106626,
          0.12797561922933648,
          0.005735599118399189,
          -0.16317946050335574,
          -0.05561630982010144,
          0.1194097847042096,
          0.08625271732914662,
          0.2030717153233387,
          0.08010790376236611,
          -0.24177011707564358,
          0.12946405979222658,
          -0.056095574038211464,
          -0.12820670588636573,
          -0.03510840549152398,
          -0.07933465460201394,
          0.3449619508307704,
          0.005241350208442355,
          0.3842979682438879,
          -0.08593574929354404,
          0.10737255720916622,
          0.1648827850591819,
          -0.004880229940089441,
          0.1907622600378601,
          0.14025159801832837,
          -0.011024782068171791,
          -0.07136093869771382,
          -0.1311110808638831,
          0.1526232541922368,
          0.0982356651601389,
          -0.02094972686497941,
          0.06360081712804548,
          -0.21970770672198475,
          -0.07810990784403431,
          0.06825656212219915,
          0.14794548125009083,
          -0.05842898962409869,
          -0.025040851597682375,
          0.010135253619949287,
          0.03503214251040227,
          -0.10910719709838114,
          0.0031634907832277905,
          0.09705003830248189,
          -0.02699115011123103,
          -0.21710114635553127,
          0.11388973747064438,
          -0.08606549126047655,
          0.06806751201708722,
          -0.1421538418923928,
          -0.06413605229215417,
          -0.003052207943915753,
          0.02056526845659364,
          -0.018438558341105225,
          -0.12196964809357652,
          0.15360776625328335,
          -0.17051179277545558,
          -0.12718725122088795,
          0.12460221810254735,
          -0.00651216802209156,
          0.031101369201153202,
          0.2650009366313198,
          0.09389301858278927,
          0.10323466463722257,
          0.014213599518943177,
          -0.07413708457880894,
          0.0765693068290503,
          -0.025077853311880654,
          0.1026422087556767,
          0.05972267622328771,
          0.06478370108623807,
          0.03986531635416834,
          0.02830499874983765,
          -0.03008042233550821,
          0.031102793469612682,
          0.10881218214015687,
          0.01882831444110023,
          -0.15081925776500213,
          -0.33185232283377364,
          0.16046200578553993,
          -0.2148176172116957,
          -0.3183428022572997,
          0.004834770494917498,
          0.1297393329992589,
          0.1180127729890808,
          -0.21999974015383492,
          0.29331887229217884,
          -0.0940718686349001,
          0.08985324520513562,
          -0.02819024497706897,
          0.11801091415514978,
          0.15847832540553897,
          -0.13579063807552008,
          0.30556394739347564,
          0.11656515254314198,
          -0.10803789890003215,
          -0.15196554514828708,
          0.040905228182079645,
          0.2450935151185215,
          0.14879727868495704,
          -0.10192771483425642,
          -0.1507902013520564,
          0.15105235276183432,
          0.05190598357848177,
          -0.03394230691780407,
          0.06479973904030746,
          -0.07415931219150616,
          0.1168276429351826,
          0.2074850456971379,
          -0.02879491563817837,
          -0.05663079395459682,
          -0.04115831893161389,
          -0.0461435622543059,
          0.12453794638696783,
          -0.018330081732541186,
          0.07195518812177627,
          -0.10333558552032358,
          -0.1883837893967396,
          -0.015943182569731606,
          -0.10581561792669653,
          -0.14200888009880097,
          -0.038346536873543814,
          0.12647594136154883,
          -0.15408798173037092,
          0.018934406872046963,
          -0.008875456769858145,
          0.116430500231126,
          0.07782776342812722,
          0.0720882331015777,
          -0.002880720362257443,
          -0.10980488192547477,
          0.08772856192623554,
          -0.06456751021235506,
          0.11220241176842256,
          -0.34682982437384097,
          -0.06672080374682905,
          -0.23148916264153296,
          -0.053536262907258256,
          -0.06431920386849263,
          0.13879607113190529,
          -0.023848050548580645,
          0.09515379742544369,
          -0.17560204244502806,
          0.08267474408654779,
          0.12046321671484712,
          0.06116942777507401,
          -0.16538957571622118,
          -0.1652666553779784,
          -0.05051561176679031,
          0.020718629845387162,
          -0.05951958852435724,
          -0.0006848232109846922,
          -0.036188343290744523,
          -0.10761489733968188,
          0.11343174389666237,
          -0.0906365711146183,
          -0.09725884773398998,
          0.09702774375731224,
          0.15215020102057755,
          0.19174697858495246,
          -0.13573564557174783,
          0.1369473675078014,
          0.103160240642394,
          -0.18570778682070158,
          -0.02455658693671271,
          -0.20368919938086952,
          -0.01699544909811197,
          -0.005264671296037534,
          -0.09639754729216618,
          0.0035428505284646307,
          -0.11249096997756425,
          -0.25215122819040686,
          -0.022745069773703833,
          -0.11319164524480681,
          0.16959459787668957,
          -0.009872634975710072,
          0.1964600589570074,
          0.3596474437592012,
          -0.030075877882790317,
          0.24140237033987702,
          0.05526131256888062,
          -0.1085957719707095,
          -0.22307099950639153,
          0.061689981049280335,
          0.05105639055065887,
          -0.10051032386036127,
          0.14175502319966105,
          0.25924436832672465,
          -0.025902774479101824,
          -0.07121261836858615,
          0.05249712382601655,
          0.2411443806109425,
          0.20870728659450202,
          -0.01163052368581408,
          0.05713411807120478,
          -0.2062918756136575,
          -0.052956786117925835,
          0.01495022397155899,
          -0.08783705974770417,
          0.04748735331318365,
          0.07079124474050011,
          0.02477196774222656,
          -0.1335206772997693,
          -0.2283403194665866,
          -0.020052424355262388,
          -0.07652700592842153,
          0.06310216041346227,
          -0.09574139970541544,
          0.03349730669372816,
          -0.24652485718054598,
          -0.33153341381105433,
          0.06303096575386068,
          0.04476100000673695,
          0.03878886995560741,
          0.08026857259180976,
          0.048720821129399974,
          -0.039017467412645696,
          -0.1511588714686738,
          0.14158468439991706,
          0.0019297459276141357,
          -0.05175490165474285,
          -0.05190792330004826,
          0.04638575826619599,
          -0.17639791496210439,
          -0.05650428262601555,
          -0.14198521996938168,
          0.06236205114816583,
          0.14974932881366038,
          0.010981155205665028,
          0.02352646918392834,
          0.19125314788619713,
          -0.3737308078741362,
          -0.07130058552352864,
          0.08271058751638598,
          -0.051086566212904014,
          0.028662117786004433,
          0.045801345899471727,
          0.034337632265540444,
          -0.005759755443356191,
          0.03412177295241179,
          -0.03255376750994139,
          -0.038225499529276306,
          0.0014914362457532611,
          -0.1880562735744964,
          -0.09721176489316705,
          0.041214025198936306,
          0.015617666760620276,
          0.12509867308327524,
          -0.13814686974056037,
          -0.023644559817039636,
          -0.05553556325549994,
          -0.03559732310667972,
          -0.023372959045393132,
          -0.11955354624118278,
          0.08212668536434595,
          -0.09596910033317174,
          0.1665515289411523,
          0.17087900376950568,
          0.03174959562933099,
          -0.04048059729399046,
          0.08181486835525956,
          -0.047216320282297705,
          0.003938517345431751,
          0.09999762569473537,
          0.21495429125839957,
          0.18492580154609461,
          0.02413837465326396,
          -0.17397383612887274,
          -0.05270156598064618,
          0.07061798736055869,
          0.37542323285814805,
          0.1372002155818044,
          -0.007776196774913818,
          0.06267616752499929,
          -0.18315449006801207,
          -0.05132736571768591,
          0.08773416993403726,
          -0.024696336739441462,
          -0.0016076827804868393,
          -0.13584133718808591,
          -0.12283299389344131,
          -0.07807145238271514,
          0.16091495994025456,
          -0.20777210324273035,
          0.1992489138217083,
          0.08564839081290831,
          0.0464662747875188,
          -0.19855724520237492,
          0.11805543656505672,
          0.23251111988385315,
          0.06537648459220052,
          0.1616875103673199,
          0.05141355819440085,
          0.004786762871995114,
          -0.08519390923885649,
          0.05981620395381354,
          -0.12959429415288293,
          -0.08516613078700393,
          0.10408839535415354,
          -0.1632066884841254,
          0.10198804402774689,
          -0.27718954895269854,
          -0.08155194957572896,
          -0.2808431676932724,
          0.07067116417652747,
          -0.252596873316097,
          -0.021032000035827277,
          -0.12689318805445524,
          -0.08788838138303422,
          -0.11014258897308034,
          0.21885208490566077,
          0.08357885963847368,
          -0.026269385122591138,
          0.03128852732827177,
          0.3016136807033965,
          0.024184333697274255,
          0.0518303315236963,
          0.0589534852240234,
          0.23779161844786964,
          -0.2295878346916839,
          -0.06779807895910125,
          0.011338532577239139,
          -0.2158411155696177,
          0.16216848868078904,
          0.09525599202407861,
          0.16781930739782833,
          0.16181647015943684,
          0.1185800453154746,
          0.1445395402499276,
          0.16726623751693573,
          -0.04182052496825486,
          0.08713206550886549,
          -0.058640530364406356,
          0.06150710142479568,
          0.13385601957474094,
          -0.04095968047343415,
          0.000940337674993325,
          -0.0574362124865242,
          0.21763536789141152,
          0.03153143938258491,
          -0.012289638460667914,
          0.1831552463564824,
          0.08380437689415361,
          0.02291030891881133,
          0.23576854692822277,
          -0.16590214042262838,
          0.1366613351867304,
          0.055543413230793495,
          -0.10116027503374105,
          -0.04094510805045611,
          -0.2089593739077188,
          0.2383377865226119,
          -0.20949986332301943,
          0.08461018719927066,
          -0.14354496457772062,
          -0.15028094918037221,
          0.1525407478861139,
          0.02661268011681022,
          -0.004217593010289708,
          -0.0928075532509095,
          -0.03681621020583244,
          -0.054608381912032156,
          0.12991873551908859,
          -0.0069751719522739555,
          0.07172650381152866,
          -0.23854831543934937,
          -0.06712173450087686,
          -0.26414859010814895,
          -0.23808576602542988,
          -0.023332514533800888,
          -0.1624663607275668,
          0.020277101930966712,
          -0.057959012189716046,
          0.09646220506976169,
          0.05493661785360841,
          -0.04289214134374885,
          0.1041552775492599,
          0.09938926847737617,
          -0.1672774552169079,
          0.004844662178032748,
          -0.230018550711349,
          -0.06482441303091499,
          -0.0678986235609698,
          0.08002125285212117,
          0.01613124407966199,
          -0.008683021287763104,
          0.14814357565501102,
          -0.09776000660143291,
          0.004333713121378579,
          -0.0424607310197944,
          0.03749914443955444,
          0.09319534012215208,
          -0.12574073451473722,
          0.08895064365742547,
          -0.20603349979872865,
          -0.035372572986266365,
          0.14944267437887185,
          0.15018635218409035,
          -0.1870882264388674,
          0.06112819240375655,
          0.24411839472301988,
          0.10836073006686968,
          0.005113848644661976,
          -0.1021356860171476,
          0.11200305642534063,
          -0.10572910429246202,
          -0.08561977534446233,
          0.34999382882238633,
          -0.14266035618484849,
          0.0739365691311264,
          0.06599752299712176,
          0.1355185748843657,
          0.278182139663952,
          0.15996951669081672,
          -0.003536090859594555,
          0.09631479375221447,
          0.22090497345586682,
          -0.010595870053657367,
          -0.11713017217763266,
          0.19032872961715552,
          0.07934677098199212,
          0.01103864951351196,
          0.0984123535538901,
          -0.021543083883780872,
          -0.1507085968336258,
          0.05730222173572719,
          -0.18461178924699503,
          0.0029821492025883076,
          0.08031745454904868,
          -0.06573553033492167,
          -0.0031681166650906014,
          -0.019798605259404436,
          0.03409686869982834,
          -0.07893444425868176,
          -0.002834161661333926,
          0.143856922288036,
          0.2033300066766087,
          -0.05422199913744306,
          0.025000707514935154,
          0.14908791519786144,
          0.0042139612254166415,
          -0.08488185240936008,
          -0.21151906151130426,
          0.016181924042965375,
          -0.05093765261673581,
          0.1002365657737925,
          -0.04763141298790339,
          0.12079165165502247,
          0.0945638477338239,
          -0.1308479137360232,
          0.13428929701929468,
          0.04562106488851902,
          0.0005168484304345851,
          0.108177098713573,
          -0.09237335562557997,
          0.05511369176048878,
          0.14178997366250476,
          0.06394036608234142,
          -0.11018655444675325,
          -0.008028961492004872,
          0.1372748061126206,
          0.1276425809676971,
          -0.0741926518417628,
          -0.1851870956791521,
          -0.19558593082288434,
          -0.0158893794391753,
          0.008662727145133031,
          -0.15022955837656962,
          -0.3847298945750712,
          0.190865370292649,
          0.1364724075987246,
          -0.2294807651290663,
          0.053926131659461585,
          -0.06742602063883771,
          0.2445807449137558,
          -0.008368060962166328,
          0.03730089681017051,
          -0.08190291355134516,
          0.07465382761674705,
          0.0924462254657815,
          0.12632552861741989,
          0.056276664279406384,
          -0.10607515197902673,
          -0.09762166919172881,
          0.11423011809930571,
          -0.01121692896685651,
          0.046366044198494875,
          0.012508104383858463,
          -0.02986180001883397,
          -0.057251036577265185,
          0.26314242373894875,
          0.19508507172548767,
          -0.12322463176152973,
          0.01640597313519958,
          0.09174014738413251,
          0.04165993926839843,
          0.0878664015163962,
          -0.10203042325140264,
          -0.16138937904242703,
          0.010879416548136218,
          -0.06782349613038592,
          0.11410544050065478,
          -0.15154509110933656,
          -0.12171893109996249,
          -0.13341628776527029,
          0.10221270699760206,
          -0.15759436647803826,
          -0.061245535423851465,
          -0.03975313409809933,
          -0.14192331291176127,
          0.007870669752392333,
          -0.18127984080723292,
          -0.32133407484164883,
          0.033315538859098236,
          -0.1920981719532724,
          0.3772392107255344,
          0.23113779855142208,
          -0.288535905258939,
          -0.04420175936746977,
          -0.03306013183096329,
          0.00742738631547323,
          0.050154033984897026,
          -0.13061322135095751,
          0.31712247740707644,
          0.3549055482869347,
          0.08816222842274911,
          0.21225546399386866,
          0.037356920614632944,
          0.009442310782964588,
          0.019962132021077814,
          -0.06311905642347977,
          0.10407064974232029,
          -0.038390449227335754,
          -0.2032099477919828,
          -0.0183426093778616,
          0.09401387532380213,
          0.02513252292374967,
          -0.026862513913215022,
          0.004066227324310659,
          0.03576340875771239,
          -0.20909165087174444,
          0.1403974587167819,
          0.1793212973324834,
          -0.05716869303434614,
          -0.030457255480866086,
          0.00587375617143016,
          0.15230171011475482,
          -0.02865711044860824,
          0.07621328699439597,
          0.2038307118794654,
          0.10220605595541114,
          0.07061639278107971,
          -0.23360684030853143,
          0.00007483877614404009,
          -0.06424400539167156,
          0.061937664808491374,
          -0.029117632914274147,
          -0.18664370288229873,
          0.0666568882920408,
          -0.07418101900422584,
